Language model created by QuickLM on Wed Mar  3 11:51:10 EST 2021
Copyright (c) 1996-2010 Carnegie Mellon University and Alexander I. Rudnicky

The model is in standard ARPA format, designed by Doug Paul while he was at MITRE.

The code that was used to produce this language model is available in Open Source.
Please visit http://www.speech.cs.cmu.edu/tools/ for more information

The (fixed) discount mass is 0.5. The backoffs are computed using the ratio method.
This model based on a corpus of 3 sentences and 8 words

\data\
ngram 1=8
ngram 2=9
ngram 3=6

\1-grams:
-0.9031 </s> -0.3010
-0.9031 <s> -0.2430
-1.3802 ASSISTANT -0.2430
-1.3802 BOOT -0.2825
-1.3802 LISTENING -0.2430
-1.3802 MIND -0.2430
-1.3802 OPEN -0.2825
-1.3802 STOP -0.2825

\2-grams:
-0.7782 <s> BOOT 0.0000
-0.7782 <s> OPEN 0.0000
-0.7782 <s> STOP 0.0000
-0.3010 ASSISTANT </s> -0.3010
-0.3010 BOOT MIND 0.0000
-0.3010 LISTENING </s> -0.3010
-0.3010 MIND </s> -0.3010
-0.3010 OPEN ASSISTANT 0.0000
-0.3010 STOP LISTENING 0.0000

\3-grams:
-0.3010 <s> BOOT MIND
-0.3010 <s> OPEN ASSISTANT
-0.3010 <s> STOP LISTENING
-0.3010 BOOT MIND </s>
-0.3010 OPEN ASSISTANT </s>
-0.3010 STOP LISTENING </s>

\end\
