Language model created by QuickLM on Wed Mar  3 16:08:18 EST 2021
Copyright (c) 1996-2010 Carnegie Mellon University and Alexander I. Rudnicky

The model is in standard ARPA format, designed by Doug Paul while he was at MITRE.

The code that was used to produce this language model is available in Open Source.
Please visit http://www.speech.cs.cmu.edu/tools/ for more information

The (fixed) discount mass is 0.5. The backoffs are computed using the ratio method.
This model based on a corpus of 27 sentences and 44 words

\data\
ngram 1=44
ngram 2=73
ngram 3=67

\1-grams:
-0.9700 </s> -0.3010
-0.9700 <s> -0.2479
-2.1004 A -0.2870
-2.4014 ASSISTANT -0.2518
-2.4014 CAN -0.2976
-2.4014 CLOSE -0.2993
-2.4014 COMMANDS -0.2518
-2.4014 DAY -0.2923
-2.4014 DECREASE -0.2941
-2.4014 DIAGNOSTICS -0.2518
-2.4014 DID -0.2976
-2.1004 DOWN -0.2518
-2.1004 I -0.2976
-2.4014 INCREASE -0.2941
-1.7024 IS -0.2888
-1.7993 IT -0.2440
-2.4014 LIST -0.2993
-2.4014 MAKE -0.2993
-2.4014 ME -0.2976
-2.4014 MIND -0.2518
-2.4014 NEWS -0.2518
-2.4014 NEXT -0.2888
-2.1004 PAUSE -0.2381
-2.1004 PLAY -0.2381
-2.4014 PLAYING -0.2518
-2.4014 PREVIOUS -0.2888
-2.4014 READ -0.2993
-2.4014 ROOT -0.2993
-2.4014 RUN -0.2993
-2.4014 SANDWICH -0.2518
-2.1004 SAY -0.2518
-2.4014 SING -0.2976
-2.4014 SKIP -0.2888
-1.5563 SONG -0.2518
-2.4014 SUDO -0.2993
-2.4014 THE -0.2993
-2.4014 THIS -0.2888
-2.4014 TIME -0.2923
-2.1004 TURN -0.2941
-2.1004 UP -0.2518
-1.7993 VOLUME -0.2440
-2.4014 WEATHER -0.2518
-1.5563 WHAT -0.2852
-2.4014 WORLD -0.2993

\2-grams:
-1.7324 <s> CLOSE 0.0000
-1.7324 <s> DECREASE 0.0000
-1.7324 <s> INCREASE 0.0000
-1.7324 <s> LIST 0.0000
-1.7324 <s> NEXT 0.0000
-1.4314 <s> PAUSE 0.0000
-1.4314 <s> PLAY 0.0000
-1.7324 <s> PREVIOUS 0.0000
-1.7324 <s> READ 0.0000
-1.7324 <s> ROOT 0.0000
-1.7324 <s> RUN 0.0000
-1.7324 <s> SING 0.0000
-1.7324 <s> SKIP 0.0000
-1.7324 <s> SUDO 0.0000
-1.4314 <s> TURN 0.0000
-1.4314 <s> VOLUME -0.1761
-0.8873 <s> WHAT -0.0000
-0.6021 A SANDWICH 0.0000
-0.6021 A SONG 0.0000
-0.3010 ASSISTANT </s> -0.3010
-0.3010 CAN I 0.0000
-0.3010 CLOSE ASSISTANT 0.0000
-0.3010 COMMANDS </s> -0.3010
-0.3010 DAY IS -0.2041
-0.3010 DECREASE VOLUME -0.1761
-0.3010 DIAGNOSTICS </s> -0.3010
-0.3010 DID I 0.0000
-0.3010 DOWN </s> -0.3010
-0.3010 I SAY 0.0000
-0.3010 INCREASE VOLUME -0.1761
-0.6990 IS IT -0.1761
-1.0000 IS PLAYING 0.0000
-1.0000 IS THE 0.0000
-1.0000 IS THIS 0.0000
-0.6021 IT </s> -0.3010
-0.9031 IT DOWN 0.0000
-0.9031 IT UP 0.0000
-0.3010 LIST COMMANDS 0.0000
-0.3010 MAKE ME 0.0000
-0.3010 ME A -0.1761
-0.3010 MIND </s> -0.3010
-0.3010 NEWS </s> -0.3010
-0.3010 NEXT SONG 0.0000
-0.6021 PAUSE </s> -0.3010
-0.6021 PAUSE SONG 0.0000
-0.6021 PLAY </s> -0.3010
-0.6021 PLAY SONG 0.0000
-0.3010 PLAYING </s> -0.3010
-0.3010 PREVIOUS SONG 0.0000
-0.3010 READ WORLD 0.0000
-0.3010 ROOT MIND 0.0000
-0.3010 RUN DIAGNOSTICS 0.0000
-0.3010 SANDWICH </s> -0.3010
-0.3010 SAY </s> -0.3010
-0.3010 SING A -0.1761
-0.3010 SKIP SONG 0.0000
-0.3010 SONG </s> -0.3010
-0.3010 SUDO MAKE 0.0000
-0.3010 THE WEATHER 0.0000
-0.3010 THIS SONG 0.0000
-0.3010 TIME IS -0.2041
-0.3010 TURN IT -0.1761
-0.3010 UP </s> -0.3010
-0.6021 VOLUME </s> -0.3010
-0.9031 VOLUME DOWN 0.0000
-0.9031 VOLUME UP 0.0000
-0.3010 WEATHER </s> -0.3010
-1.1461 WHAT CAN 0.0000
-1.1461 WHAT DAY 0.0000
-1.1461 WHAT DID 0.0000
-0.6690 WHAT IS -0.1461
-1.1461 WHAT TIME 0.0000
-0.3010 WORLD NEWS 0.0000

\3-grams:
-0.3010 <s> CLOSE ASSISTANT
-0.3010 <s> DECREASE VOLUME
-0.3010 <s> INCREASE VOLUME
-0.3010 <s> LIST COMMANDS
-0.3010 <s> NEXT SONG
-0.6021 <s> PAUSE </s>
-0.6021 <s> PAUSE SONG
-0.6021 <s> PLAY </s>
-0.6021 <s> PLAY SONG
-0.3010 <s> PREVIOUS SONG
-0.3010 <s> READ WORLD
-0.3010 <s> ROOT MIND
-0.3010 <s> RUN DIAGNOSTICS
-0.3010 <s> SING A
-0.3010 <s> SKIP SONG
-0.3010 <s> SUDO MAKE
-0.3010 <s> TURN IT
-0.6021 <s> VOLUME DOWN
-0.6021 <s> VOLUME UP
-1.1461 <s> WHAT CAN
-1.1461 <s> WHAT DAY
-1.1461 <s> WHAT DID
-0.6690 <s> WHAT IS
-1.1461 <s> WHAT TIME
-0.3010 A SANDWICH </s>
-0.3010 A SONG </s>
-0.3010 CAN I SAY
-0.3010 CLOSE ASSISTANT </s>
-0.3010 DAY IS IT
-0.3010 DECREASE VOLUME </s>
-0.3010 DID I SAY
-0.3010 I SAY </s>
-0.3010 INCREASE VOLUME </s>
-0.3010 IS IT </s>
-0.3010 IS PLAYING </s>
-0.3010 IS THE WEATHER
-0.3010 IS THIS SONG
-0.3010 IT DOWN </s>
-0.3010 IT UP </s>
-0.3010 LIST COMMANDS </s>
-0.3010 MAKE ME A
-0.3010 ME A SANDWICH
-0.3010 NEXT SONG </s>
-0.3010 PAUSE SONG </s>
-0.3010 PLAY SONG </s>
-0.3010 PREVIOUS SONG </s>
-0.3010 READ WORLD NEWS
-0.3010 ROOT MIND </s>
-0.3010 RUN DIAGNOSTICS </s>
-0.3010 SING A SONG
-0.3010 SKIP SONG </s>
-0.3010 SUDO MAKE ME
-0.3010 THE WEATHER </s>
-0.3010 THIS SONG </s>
-0.3010 TIME IS IT
-0.6021 TURN IT DOWN
-0.6021 TURN IT UP
-0.3010 VOLUME DOWN </s>
-0.3010 VOLUME UP </s>
-0.3010 WHAT CAN I
-0.3010 WHAT DAY IS
-0.3010 WHAT DID I
-0.7782 WHAT IS PLAYING
-0.7782 WHAT IS THE
-0.7782 WHAT IS THIS
-0.3010 WHAT TIME IS
-0.3010 WORLD NEWS </s>

\end\
