Language model created by QuickLM on Wed Mar  3 14:14:25 EST 2021
Copyright (c) 1996-2010 Carnegie Mellon University and Alexander I. Rudnicky

The model is in standard ARPA format, designed by Doug Paul while he was at MITRE.

The code that was used to produce this language model is available in Open Source.
Please visit http://www.speech.cs.cmu.edu/tools/ for more information

The (fixed) discount mass is 0.5. The backoffs are computed using the ratio method.
This model based on a corpus of 25 sentences and 42 words

\data\
ngram 1=42
ngram 2=69
ngram 3=62

\1-grams:
-0.9638 </s> -0.3010
-0.9638 <s> -0.2468
-2.0607 A -0.2876
-2.3617 ASSISTANT -0.2511
-2.3617 CAN -0.2972
-2.3617 CLOSE -0.2991
-2.3617 COMMANDS -0.2511
-2.3617 DAY -0.2953
-2.3617 DECREASE -0.2934
-2.3617 DIAGNOSTICS -0.2511
-2.3617 DID -0.2972
-2.0607 DOWN -0.2511
-2.0607 I -0.2972
-2.3617 INCREASE -0.2934
-1.8846 IS -0.2915
-1.7597 IT -0.2425
-2.3617 LIST -0.2991
-2.3617 MAKE -0.2991
-2.3617 ME -0.2972
-2.3617 MIND -0.2511
-2.3617 NEWS -0.2511
-2.3617 NEXT -0.2896
-2.0607 PAUSE -0.2382
-2.0607 PLAY -0.2382
-2.3617 PREVIOUS -0.2896
-2.3617 READ -0.2991
-2.3617 ROOT -0.2991
-2.3617 RUN -0.2991
-2.3617 SANDWICH -0.2511
-2.0607 SAY -0.2511
-2.3617 SING -0.2972
-2.3617 SKIP -0.2896
-1.5836 SONG -0.2511
-2.3617 SUDO -0.2991
-2.3617 THE -0.2991
-2.3617 TIME -0.2953
-2.0607 TURN -0.2934
-2.0607 UP -0.2511
-1.7597 VOLUME -0.2425
-2.3617 WEATHER -0.2511
-1.6628 WHAT -0.2876
-2.3617 WORLD -0.2991

\2-grams:
-1.6990 <s> CLOSE 0.0000
-1.6990 <s> DECREASE 0.0000
-1.6990 <s> INCREASE 0.0000
-1.6990 <s> LIST 0.0000
-1.6990 <s> NEXT 0.0000
-1.3979 <s> PAUSE 0.0000
-1.3979 <s> PLAY 0.0000
-1.6990 <s> PREVIOUS 0.0000
-1.6990 <s> READ 0.0000
-1.6990 <s> ROOT 0.0000
-1.6990 <s> RUN 0.0000
-1.6990 <s> SING 0.0000
-1.6990 <s> SKIP 0.0000
-1.6990 <s> SUDO 0.0000
-1.3979 <s> TURN 0.0000
-1.3979 <s> VOLUME -0.1761
-1.0000 <s> WHAT 0.0000
-0.6021 A SANDWICH 0.0000
-0.6021 A SONG 0.0000
-0.3010 ASSISTANT </s> -0.3010
-0.3010 CAN I 0.0000
-0.3010 CLOSE ASSISTANT 0.0000
-0.3010 COMMANDS </s> -0.3010
-0.3010 DAY IS -0.1249
-0.3010 DECREASE VOLUME -0.1761
-0.3010 DIAGNOSTICS </s> -0.3010
-0.3010 DID I 0.0000
-0.3010 DOWN </s> -0.3010
-0.3010 I SAY 0.0000
-0.3010 INCREASE VOLUME -0.1761
-0.4771 IS IT -0.1761
-0.7782 IS THE 0.0000
-0.6021 IT </s> -0.3010
-0.9031 IT DOWN 0.0000
-0.9031 IT UP 0.0000
-0.3010 LIST COMMANDS 0.0000
-0.3010 MAKE ME 0.0000
-0.3010 ME A -0.1761
-0.3010 MIND </s> -0.3010
-0.3010 NEWS </s> -0.3010
-0.3010 NEXT SONG 0.0000
-0.6021 PAUSE </s> -0.3010
-0.6021 PAUSE SONG 0.0000
-0.6021 PLAY </s> -0.3010
-0.6021 PLAY SONG 0.0000
-0.3010 PREVIOUS SONG 0.0000
-0.3010 READ WORLD 0.0000
-0.3010 ROOT MIND 0.0000
-0.3010 RUN DIAGNOSTICS 0.0000
-0.3010 SANDWICH </s> -0.3010
-0.3010 SAY </s> -0.3010
-0.3010 SING A -0.1761
-0.3010 SKIP SONG 0.0000
-0.3010 SONG </s> -0.3010
-0.3010 SUDO MAKE 0.0000
-0.3010 THE WEATHER 0.0000
-0.3010 TIME IS -0.1249
-0.3010 TURN IT -0.1761
-0.3010 UP </s> -0.3010
-0.6021 VOLUME </s> -0.3010
-0.9031 VOLUME DOWN 0.0000
-0.9031 VOLUME UP 0.0000
-0.3010 WEATHER </s> -0.3010
-1.0000 WHAT CAN 0.0000
-1.0000 WHAT DAY 0.0000
-1.0000 WHAT DID 0.0000
-1.0000 WHAT IS -0.2218
-1.0000 WHAT TIME 0.0000
-0.3010 WORLD NEWS 0.0000

\3-grams:
-0.3010 <s> CLOSE ASSISTANT
-0.3010 <s> DECREASE VOLUME
-0.3010 <s> INCREASE VOLUME
-0.3010 <s> LIST COMMANDS
-0.3010 <s> NEXT SONG
-0.6021 <s> PAUSE </s>
-0.6021 <s> PAUSE SONG
-0.6021 <s> PLAY </s>
-0.6021 <s> PLAY SONG
-0.3010 <s> PREVIOUS SONG
-0.3010 <s> READ WORLD
-0.3010 <s> ROOT MIND
-0.3010 <s> RUN DIAGNOSTICS
-0.3010 <s> SING A
-0.3010 <s> SKIP SONG
-0.3010 <s> SUDO MAKE
-0.3010 <s> TURN IT
-0.6021 <s> VOLUME DOWN
-0.6021 <s> VOLUME UP
-1.0000 <s> WHAT CAN
-1.0000 <s> WHAT DAY
-1.0000 <s> WHAT DID
-1.0000 <s> WHAT IS
-1.0000 <s> WHAT TIME
-0.3010 A SANDWICH </s>
-0.3010 A SONG </s>
-0.3010 CAN I SAY
-0.3010 CLOSE ASSISTANT </s>
-0.3010 DAY IS IT
-0.3010 DECREASE VOLUME </s>
-0.3010 DID I SAY
-0.3010 I SAY </s>
-0.3010 INCREASE VOLUME </s>
-0.3010 IS IT </s>
-0.3010 IS THE WEATHER
-0.3010 IT DOWN </s>
-0.3010 IT UP </s>
-0.3010 LIST COMMANDS </s>
-0.3010 MAKE ME A
-0.3010 ME A SANDWICH
-0.3010 NEXT SONG </s>
-0.3010 PAUSE SONG </s>
-0.3010 PLAY SONG </s>
-0.3010 PREVIOUS SONG </s>
-0.3010 READ WORLD NEWS
-0.3010 ROOT MIND </s>
-0.3010 RUN DIAGNOSTICS </s>
-0.3010 SING A SONG
-0.3010 SKIP SONG </s>
-0.3010 SUDO MAKE ME
-0.3010 THE WEATHER </s>
-0.3010 TIME IS IT
-0.6021 TURN IT DOWN
-0.6021 TURN IT UP
-0.3010 VOLUME DOWN </s>
-0.3010 VOLUME UP </s>
-0.3010 WHAT CAN I
-0.3010 WHAT DAY IS
-0.3010 WHAT DID I
-0.3010 WHAT IS THE
-0.3010 WHAT TIME IS
-0.3010 WORLD NEWS </s>

\end\
